FANN_FLO_2.1
num_layers=3
learning_rate=0.700000
connection_rate=1.000000
network_type=0
learning_momentum=0.000000
training_algorithm=2
train_error_function=1
train_stop_function=0
cascade_output_change_fraction=0.010000
quickprop_decay=-0.000100
quickprop_mu=1.750000
rprop_increase_factor=1.200000
rprop_decrease_factor=0.500000
rprop_delta_min=0.000000
rprop_delta_max=50.000000
rprop_delta_zero=0.100000
cascade_output_stagnation_epochs=12
cascade_candidate_change_fraction=0.010000
cascade_candidate_stagnation_epochs=12
cascade_max_out_epochs=150
cascade_min_out_epochs=50
cascade_max_cand_epochs=150
cascade_min_cand_epochs=50
cascade_num_candidate_groups=2
bit_fail_limit=3.49999999999999977796e-01
cascade_candidate_limit=1.00000000000000000000e+03
cascade_weight_multiplier=4.00000000000000022204e-01
cascade_activation_functions_count=10
cascade_activation_functions=3 5 7 8 10 11 14 15 16 17 
cascade_activation_steepnesses_count=4
cascade_activation_steepnesses=2.50000000000000000000e-01 5.00000000000000000000e-01 7.50000000000000000000e-01 1.00000000000000000000e+00 
layer_sizes=4 5 3 
scale_included=0
neurons (num_inputs, activation_function, activation_steepness)=(0, 0, 0.00000000000000000000e+00) (0, 0, 0.00000000000000000000e+00) (0, 0, 0.00000000000000000000e+00) (0, 0, 0.00000000000000000000e+00) (4, 4, 5.00000000000000000000e-01) (4, 4, 5.00000000000000000000e-01) (4, 4, 5.00000000000000000000e-01) (4, 4, 5.00000000000000000000e-01) (0, 0, 0.00000000000000000000e+00) (5, 6, 5.00000000000000000000e-01) (5, 6, 5.00000000000000000000e-01) (0, 6, 0.00000000000000000000e+00) 
connections (connected_to_neuron, weight)=(0, 1.13964353523617265007e-02) (1, 6.87339036723062790646e-03) (2, 4.11998455964005735885e-02) (3, -3.14889666659975975271e-02) (0, 7.54764875468088153321e-02) (1, -1.90527319021930041654e-02) (2, 5.72105516822718207504e-02) (3, -1.48473011679545185970e-03) (0, -4.54267034556970414338e-02) (1, 1.26306993906304121378e-02) (2, 6.37484505958624131372e-02) (3, -9.84933849199620403692e-02) (0, -6.61553457924029947312e-02) (1, 7.13677985983758866873e-02) (2, -3.78609547445320215875e-02) (3, 1.98496546760149952804e-02) (4, 2.84739142801450767495e-02) (5, -8.19101725803341174093e-02) (6, -5.95820545715399635389e-03) (7, -6.17002313837443361333e-02) (8, 3.39203115950571162940e-02) (4, -2.48978625036457498765e-02) (5, 6.16228145416500214249e-02) (6, 9.32607391776254512905e-02) (7, 1.89046067208738094445e-02) (8, -7.79969330392320803202e-02) 
